Layer: Hidden_1
[[-0.0882319 , -0.19880222, -0.1602239 , -0.18049425, -0.36798492,
  -0.32044685, -0.11118491, -0.1353668 ,  0.28179067,  0.142345  ,
   0.35381952,  0.33797517, -0.16089623,  0.08892446,  0.23819296,
  -0.01372146, -0.06938222, -0.5356213 , -0.18976836, -0.08319451,
  -0.4100144 ,  0.47484064,  0.38275495, -0.05051133,  0.32547873,
   0.41026938,  0.29742536,  0.02667829,  0.23595633, -0.50907934,
   0.4275829 , -0.15660116],
 [ 0.2500488 , -0.2309773 ,  0.24894796, -0.16511407, -0.03204285,
  -0.24678536,  0.24649398,  0.20254377, -0.2828126 ,  0.2034528 ,
   0.14348263,  0.03917582,  0.08746877,  0.08678507,  0.03783534,
   0.08982293,  0.26364404, -0.01965069, -0.3081098 , -0.22305033,
  -0.38912198, -0.08855575,  0.14073199, -0.42738876, -0.37154505,
  -0.359474  ,  0.45767364, -0.00138417,  0.34867823, -0.27066067,
   0.21801676,  0.12918821],
 [ 0.2755043 ,  0.377774  ,  0.33279136, -0.27994698, -0.06832163,
  -0.07986161,  0.22603141,  0.22850963,  0.06072016, -0.22472723,
  -0.18842824,  0.12934482,  0.16134661, -0.39179808, -0.30655274,
   0.2752237 , -0.33317026,  0.3096922 , -0.04923838, -0.18682465,
   0.08095292, -0.12640831, -0.36879668, -0.16986781, -0.10851392,
   0.14282069,  0.24086827, -0.39700592, -0.33288798, -0.28976247,
  -0.14307478, -0.26486394],
 [ 0.3308196 ,  0.25306976, -0.01071141,  0.2839576 ,  0.03920317,
  -0.01395312,  0.19105312,  0.13670845, -0.018449  ,  0.42084733,
   0.20612511,  0.35761654, -0.34721956,  0.2233561 , -0.06123886,
  -0.2475396 ,  0.44880384,  0.31523877,  0.19838542,  0.08519255,
   0.20398182, -0.13786992,  0.08126344,  0.17148376,  0.0455085 ,
  -0.44805217, -0.07469641,  0.12866619,  0.09361788, -0.2304613 ,
  -0.33482575, -0.21774703],
 [-0.1217607 , -0.3314989 ,  0.34499997,  0.04268807, -0.16046417,
   0.2328292 , -0.1305747 , -0.3861796 ,  0.15058295,  0.28951803,
   0.2242036 ,  0.13648544,  0.35227075, -0.11846824, -0.29509082,
   0.3054101 , -0.14170271, -0.357089  , -0.10683305,  0.12845999,
  -0.03447482,  0.02434169, -0.23046711, -0.1957793 , -0.2733181 ,
   0.03615896,  0.3403309 ,  0.34542155, -0.14811888,  0.28373903,
   0.25266373, -0.10448463],
 [ 0.14434619, -0.02179403, -0.08837875, -0.07680101,  0.32003453,
   0.26033962, -0.10198024, -0.12788516, -0.21579495,  0.06644955,
  -0.03302235,  0.23638678,  0.39659208, -0.05101616,  0.41007757,
   0.17053404,  0.40469193,  0.07193849,  0.32696384, -0.05142584,
  -0.3097469 ,  0.4134899 , -0.1649373 ,  0.14199495, -0.1221838 ,
   0.2239888 ,  0.36383945, -0.33522445,  0.38645408,  0.14643021,
  -0.03690647,  0.00139164],
 [-0.1214344 , -0.33270863,  0.42377758, -0.32848755,  0.27856347,
  -0.14641708,  0.29718965,  0.0127446 , -0.376679  , -0.26969126,
  -0.09441206,  0.32007393, -0.07298434, -0.1307171 ,  0.33515984,
   0.32343918,  0.02251976,  0.22720322, -0.39852285,  0.2774826 ,
  -0.02918251,  0.00173233,  0.24743974, -0.309638  ,  0.02188117,
  -0.00181421, -0.00109462, -0.22197142,  0.30738497, -0.3150159 ,
   0.16084993,  0.21312338]]
[-0.03471349,  0.08430563,  0.1143818 ,  0.08049801,  0.07971892,
  0.09702525,  0.04492284,  0.03596544,  0.06051005,  0.09266342,
  0.12383774,  0.04305414,  0.01923298,  0.04107168,  0.02670505,
  0.00076171,  0.08895251,  0.12422144, -0.0406737 , -0.05357597,
  0.01604578,  0.11422999,  0.04247425, -0.00971486,  0.03157015,
  0.10650377,  0.07749806,  0.04047219,  0.02883181,  0.10155927,
  0.05686756, -0.04324466]

Layer: Hidden_2
[[ 0.27107057, -0.15753423,  0.16499034,  0.3174031 ,  0.1615926 ,
   0.15916985, -0.19949855, -0.1464552 , -0.32026383, -0.12642747,
  -0.24180275, -0.2690352 ,  0.33546555,  0.2805246 , -0.33002216,
  -0.2635904 ],
 [ 0.13147734, -0.1640137 , -0.3244411 , -0.10844252,  0.29052413,
  -0.13191739, -0.168452  , -0.04354564, -0.1499354 ,  0.23073892,
   0.44399664,  0.00293515, -0.0099555 ,  0.25074545,  0.4469671 ,
  -0.13153435],
 [ 0.02241489,  0.3688736 ,  0.03902874,  0.1706568 ,  0.06624098,
   0.20001084,  0.15308233, -0.22727789, -0.32900622,  0.16048568,
   0.11811509,  0.21692264,  0.3180952 ,  0.12951556,  0.1848103 ,
   0.12392118],
 [-0.15283938, -0.07332372,  0.34028828,  0.01192219, -0.12408749,
   0.03219399,  0.3025118 , -0.2103483 ,  0.27606827, -0.3021309 ,
   0.1406293 ,  0.3824618 ,  0.19819821,  0.24182019,  0.2631364 ,
   0.32688838],
 [-0.05249884,  0.36551544, -0.1365309 ,  0.16277137,  0.14368945,
  -0.13978244, -0.20295537,  0.24715197,  0.30043107, -0.05957361,
   0.27791432,  0.07811458,  0.43744442, -0.00565952,  0.00874848,
  -0.19967233],
 [ 0.02952974,  0.306292  ,  0.27711648, -0.37371045, -0.17685416,
   0.1015482 , -0.35880455, -0.13714722, -0.3626283 , -0.24135709,
   0.346709  ,  0.24484509, -0.12222723, -0.2884899 ,  0.29336554,
   0.11622599],
 [-0.17531621,  0.0220189 , -0.05424239,  0.2867481 , -0.1920943 ,
   0.18425453,  0.16758431,  0.22275396,  0.25517333,  0.2167546 ,
   0.2652771 ,  0.23305349,  0.3212997 ,  0.28999087,  0.17195539,
   0.31386995],
 [-0.09490824,  0.15505388, -0.10121811, -0.08604888, -0.25290293,
  -0.1315208 ,  0.25400564, -0.13028553,  0.35198653, -0.28891718,
  -0.095121  ,  0.29701906,  0.20976001, -0.0569241 ,  0.0141292 ,
   0.22934769],
 [-0.18003161,  0.02426647, -0.32354054, -0.11986919, -0.30550134,
   0.18510436,  0.20849587,  0.48300296,  0.23112613, -0.03687445,
  -0.21138787, -0.21952643,  0.08176171, -0.05405146,  0.34464934,
   0.14460629],
 [ 0.36441752, -0.20127794,  0.24673732,  0.3474298 , -0.30375448,
   0.3982269 ,  0.1675761 , -0.13384713, -0.20189711, -0.15812907,
   0.184314  ,  0.19691879,  0.36017522,  0.40375042,  0.17335173,
  -0.15454061],
 [-0.07676528,  0.10866822, -0.06748121,  0.45144036,  0.00497989,
  -0.2261166 ,  0.2568958 ,  0.39362192,  0.33139366, -0.01209024,
  -0.0423948 , -0.27595207,  0.04810321,  0.30956778,  0.27958268,
   0.32604724],
 [-0.08799139, -0.23712769,  0.2507555 ,  0.15202932, -0.33286616,
   0.220801  ,  0.01115916, -0.19856709,  0.07493714,  0.05984405,
  -0.19914907,  0.06974906,  0.06873783, -0.01096582,  0.23966472,
   0.39509338],
 [ 0.25639728,  0.20071125,  0.0419505 , -0.30651224, -0.1044338 ,
  -0.15034662, -0.14047952,  0.02979658, -0.11508755,  0.11019861,
   0.19474956,  0.24870598,  0.28298312,  0.16816711,  0.18720062,
  -0.23431644],
 [-0.0537626 , -0.09205825,  0.31553155, -0.04088188,  0.22884332,
   0.38350517,  0.19201685, -0.15285976, -0.24825233, -0.09635268,
  -0.15524325,  0.06731803, -0.21787657, -0.11015432,  0.32849127,
   0.41667563],
 [ 0.37698346,  0.04654771,  0.21580625,  0.42337975,  0.26125997,
   0.16867565, -0.22097191, -0.13124421, -0.19689739, -0.01410131,
   0.26963094, -0.0761025 ,  0.28231245,  0.19507506, -0.15469103,
  -0.06167658],
 [ 0.19968031, -0.05257325,  0.28753066, -0.190347  , -0.05167587,
   0.23340996,  0.29454634,  0.19483225,  0.20510991, -0.07424185,
   0.23523672, -0.10481273, -0.05045783, -0.0508425 , -0.26982093,
  -0.22523125],
 [ 0.4020883 ,  0.34876308,  0.20170492, -0.05227951, -0.2601138 ,
   0.2565149 ,  0.2376516 , -0.19185951,  0.02096259,  0.3061753 ,
  -0.29001164,  0.0393275 ,  0.23095395, -0.15114723, -0.14454061,
  -0.05421602],
 [ 0.4823797 ,  0.16791487, -0.07709555, -0.14854266,  0.27278963,
  -0.39473727, -0.23001523, -0.18291652,  0.03055096, -0.10661697,
   0.09591647,  0.20332833,  0.39669305, -0.41069585,  0.07137848,
  -0.14915839],
 [-0.21865512,  0.09810751, -0.27094498, -0.3646363 , -0.13719067,
   0.2962709 ,  0.3268117 , -0.09239065,  0.02657178,  0.03886729,
  -0.14401366, -0.22864315,  0.14647643, -0.2792827 ,  0.3948536 ,
   0.33112168],
 [-0.19430497,  0.026444  ,  0.25247   ,  0.20581076,  0.09325772,
   0.2860869 , -0.1959457 , -0.13617921,  0.08319932, -0.30517694,
  -0.01440076,  0.42055595, -0.12329328, -0.29058   , -0.27774906,
  -0.0997589 ],
 [ 0.10581175,  0.14685507, -0.02293328,  0.24078657,  0.27762583,
   0.02038154, -0.12272205,  0.02386293,  0.21196023,  0.30216667,
   0.22906701,  0.12407835,  0.07871284,  0.13244814,  0.05256216,
  -0.18053567],
 [ 0.05943264, -0.3497209 , -0.1691451 ,  0.37892422, -0.2367271 ,
   0.20099919,  0.3125988 ,  0.17436251,  0.12136289, -0.23245043,
   0.20689878,  0.21507157,  0.09240092,  0.39587548,  0.24654904,
   0.43421972],
 [-0.08773068, -0.3191075 ,  0.12967816,  0.29909903,  0.18458813,
   0.41875213,  0.33810088,  0.02334379, -0.29195347, -0.11830295,
  -0.08319141, -0.39803225,  0.08415564,  0.07754721,  0.05977872,
  -0.09911548],
 [ 0.03971485,  0.09329027,  0.01215322,  0.07286776,  0.2391942 ,
  -0.38021755, -0.22767903, -0.02218496,  0.08774656,  0.08950099,
   0.21064946, -0.2053772 ,  0.24534954, -0.25815448,  0.26970083,
  -0.1037082 ],
 [-0.31734532, -0.18654205,  0.11083291, -0.247713  ,  0.08750994,
   0.29369235, -0.13493347,  0.48428082,  0.13432032,  0.30306926,
   0.00841538,  0.18328856, -0.13778828,  0.3981634 , -0.23474093,
   0.08997786],
 [ 0.05925675,  0.0739342 , -0.2315294 , -0.13977377, -0.38384923,
  -0.20680563,  0.12729453,  0.29423702,  0.1969438 ,  0.31156456,
  -0.14757669, -0.30829164, -0.3918484 , -0.2582382 ,  0.24559198,
   0.34066233],
 [ 0.35077924, -0.19589041,  0.27445063,  0.3663381 , -0.09074106,
   0.28921226,  0.26702106, -0.07162165, -0.09938224, -0.19769841,
  -0.01119942, -0.29688758, -0.06086903,  0.27406824,  0.3324125 ,
   0.30755976],
 [ 0.06382822,  0.17738283,  0.15490049,  0.24940576, -0.08459661,
   0.04735671,  0.02904525, -0.0962836 , -0.30686235, -0.16521357,
   0.07339624,  0.07921383,  0.0653426 ,  0.4145731 , -0.21026982,
   0.01636155],
 [ 0.24245319,  0.17297189,  0.2246388 ,  0.19818227,  0.20453614,
  -0.14819415,  0.21447212, -0.07745779,  0.15920474,  0.00857786,
  -0.20998731, -0.25910866,  0.00059716,  0.141427  , -0.16570935,
   0.3911091 ],
 [ 0.3604567 , -0.21214873, -0.2824381 ,  0.13953114, -0.09646457,
  -0.3599768 ,  0.27526262,  0.16824931, -0.01954212, -0.29831365,
   0.15604801, -0.00341697,  0.29381618, -0.01505733,  0.19312066,
  -0.08715579],
 [-0.12001883, -0.13451032,  0.1718628 ,  0.14742804, -0.26546597,
   0.10133669,  0.26728714, -0.02131926, -0.2581699 , -0.14410909,
  -0.26524085, -0.14769915, -0.15446159,  0.13136598,  0.3399488 ,
   0.00621509],
 [-0.1939768 ,  0.15381531, -0.00920187, -0.14189163, -0.03551799,
  -0.2774219 , -0.23327978,  0.1275936 , -0.18107708, -0.06415146,
   0.16303463,  0.2610619 , -0.21754089, -0.16472772,  0.25271055,
  -0.18720779]]
[ 0.11091701,  0.10017861, -0.04391373, -0.00126849, -0.03690356,
  0.0228022 ,  0.11556707,  0.18747713,  0.03663597,  0.01797737,
  0.10264011,  0.10356946,  0.03397784,  0.05721186,  0.11350995,
  0.10086787]

Layer: Hidden_3
[[-0.07922864,  0.496045  ,  0.40862814, -0.08941271, -0.0498084 ,
  -0.0531019 , -0.20132129,  0.53760475],
 [-0.3179016 ,  0.32405666, -0.19836348,  0.31505504,  0.07534807,
  -0.24662971, -0.29203442,  0.44985485],
 [-0.13898043, -0.39468202, -0.07829551, -0.49396992,  0.37344056,
  -0.28076136, -0.31706336,  0.17242591],
 [-0.25994128, -0.25198853,  0.57045114, -0.2840066 , -0.47847062,
  -0.4392954 ,  0.17978665, -0.48823825],
 [ 0.4623867 ,  0.02799786, -0.30793193, -0.15222491, -0.37237775,
  -0.24248898, -0.22261418, -0.03042318],
 [-0.3715808 ,  0.18499663,  0.52065974,  0.09861177, -0.47259334,
  -0.4973464 , -0.326357  , -0.42647043],
 [ 0.38804927, -0.17749955,  0.46904558,  0.31884152, -0.2615411 ,
   0.39447856,  0.29854685,  0.20211026],
 [-0.30246186, -0.38884318, -0.63374645,  0.7028838 , -0.4370134 ,
  -0.17169344,  0.07970991, -0.25871518],
 [-0.31136912,  0.4710338 , -0.26783916,  0.05696423, -0.09654559,
  -0.48076022,  0.28393298, -0.35821775],
 [-0.2776326 , -0.06994043,  0.28251302,  0.2668572 , -0.4881574 ,
  -0.03949094,  0.19742078, -0.30346167],
 [-0.3832838 , -0.04383762, -0.4946326 , -0.09876034, -0.36376995,
  -0.0024966 ,  0.29268798,  0.5522805 ],
 [-0.45792845,  0.60215074, -0.15684412,  0.15781382,  0.3393141 ,
   0.25510013, -0.41465196,  0.62200636],
 [ 0.19587912,  0.48710555, -0.01060115,  0.14317717, -0.4942751 ,
  -0.25953436, -0.31716025,  0.18067136],
 [ 0.06597658, -0.3737495 ,  0.6267245 , -0.111189  , -0.09477988,
  -0.20548892,  0.15428144, -0.25088504],
 [-0.2477441 , -0.1241944 ,  0.3191749 ,  0.22069085, -0.268537  ,
  -0.0504458 ,  0.3879125 ,  0.46995038],
 [ 0.2210178 , -0.11762904,  0.554095  ,  0.30255362,  0.32135153,
   0.0237515 ,  0.3045696 , -0.26401764]]
[0.01291123, 0.04404945, 0.00553552, 0.04315863, 0.00391419, 0.        ,
 0.09616243, 0.04130392]

Layer: Output
[[-0.2436393 ,  0.27792   , -0.17198841],
 [ 0.02869068,  0.34143153, -0.75676316],
 [ 0.60701114, -0.39171496,  0.06543391],
 [-0.11532024, -0.22751194,  0.2963328 ],
 [ 0.6208267 , -0.7102735 , -0.09132551],
 [ 0.55840534, -0.1396892 ,  0.50071293],
 [-0.41473538, -0.3212229 ,  0.18759784],
 [-0.6238186 ,  0.6721379 , -0.2305497 ]]
[-0.10764973, -0.02712314,  0.10008232]

